<?xml version="1.0"?>
<opencv_storage>
<cascade>
  <stageType>BOOST</stageType>
  <featureType>HAAR</featureType>
  <height>40</height>
  <width>80</width>
  <stageParams>
    <boostType>GAB</boostType>
    <minHitRate>9.9900001287460327e-01</minHitRate>
    <maxFalseAlarm>5.0000000000000000e-01</maxFalseAlarm>
    <weightTrimRate>9.4999999999999996e-01</weightTrimRate>
    <maxDepth>1</maxDepth>
    <maxWeakCount>100</maxWeakCount></stageParams>
  <featureParams>
    <maxCatCount>0</maxCatCount>
    <featSize>1</featSize>
    <mode>ALL</mode></featureParams>
  <stageNum>10</stageNum>
  <stages>
    <!-- stage 0 -->
    <_>
      <maxWeakCount>12</maxWeakCount>
      <stageThreshold>-8.9106005430221558e-01</stageThreshold>
      <weakClassifiers>
        <_>
          <internalNodes>
            0 -1 64 7.9509220086038113e-04</internalNodes>
          <leafValues>
            8.5050505399703979e-01 5.0000000745058060e-02</leafValues></_>
        <_>
          <internalNodes>
            0 -1 86 -3.7700741086155176e-04</internalNodes>
          <leafValues>
            6.7741668224334717e-01 -3.2247462868690491e-01</leafValues></_>
        <_>
          <internalNodes>
            0 -1 62 4.3139914050698280e-03</internalNodes>
          <leafValues>
            -3.4412774443626404e-01 6.8446505069732666e-01</leafValues></_>
        <_>
          <internalNodes>
            0 -1 13 -4.0172439068555832e-02</internalNodes>
          <leafValues>
            5.7732158899307251e-01 -3.7727445363998413e-01</leafValues></_>
        <_>
          <internalNodes>
            0 -1 24 7.7470811083912849e-03</internalNodes>
          <leafValues>
            -3.3614555001258850e-01 6.3605374097824097e-01</leafValues></_>
        <_>
          <internalNodes>
            0 -1 47 -1.6826311126351357e-02</internalNodes>
          <leafValues>
            5.4831635951995850e-01 -3.6956402659416199e-01</leafValues></_>
        <_>
          <internalNodes>
            0 -1 61 7.7705713920295238e-04</internalNodes>
          <leafValues>
            -2.1105778217315674e-01 8.2189559936523438e-01</leafValues></_>
        <_>
          <internalNodes>
            0 -1 75 -1.1029792949557304e-02</internalNodes>
          <leafValues>
            7.8362077474594116e-01 -1.6350787878036499e-01</leafValues></_>
        <_>
          <internalNodes>
            0 -1 1 3.5839726479025558e-05</internalNodes>
          <leafValues>
            2.9495507478713989e-01 -6.5209460258483887e-01</leafValues></_>
        <_>
          <internalNodes>
            0 -1 68 -1.3324634637683630e-03</internalNodes>
          <leafValues>
            7.5412517786026001e-01 -2.2439339756965637e-01</leafValues></_>
        <_>
          <internalNodes>
            0 -1 58 -5.0248852930963039e-03</internalNodes>
          <leafValues>
            6.7615908384323120e-01 -2.5875774025917053e-01</leafValues></_>
        <_>
          <internalNodes>
            0 -1 104 5.8039518080477137e-06</internalNodes>
          <leafValues>
            -4.8927870392799377e-01 3.7708380818367004e-01</leafValues></_></weakClassifiers></_>
    <!-- stage 1 -->
    <_>
      <maxWeakCount>10</maxWeakCount>
      <stageThreshold>-5.2578657865524292e-01</stageThreshold>
      <weakClassifiers>
        <_>
          <internalNodes>
            0 -1 72 -1.8980879336595535e-02</internalNodes>
          <leafValues>
            -7.8723406791687012e-01 8.0417042970657349e-01</leafValues></_>
        <_>
          <internalNodes>
            0 -1 120 -3.8884252309799194e-02</internalNodes>
          <leafValues>
            -8.3896952867507935e-01 4.6526241302490234e-01</leafValues></_>
        <_>
          <internalNodes>
            0 -1 80 9.4281276687979698e-04</internalNodes>
          <leafValues>
            -4.2058646678924561e-01 6.5890717506408691e-01</leafValues></_>
        <_>
          <internalNodes>
            0 -1 116 2.7038490399718285e-02</internalNodes>
          <leafValues>
            -2.5232410430908203e-01 7.9558038711547852e-01</leafValues></_>
        <_>
          <internalNodes>
            0 -1 35 1.0203313082456589e-02</internalNodes>
          <leafValues>
            -2.5204935669898987e-01 8.0556142330169678e-01</leafValues></_>
        <_>
          <internalNodes>
            0 -1 101 -1.1252440512180328e-02</internalNodes>
          <leafValues>
            7.0751553773880005e-01 -2.9559287428855896e-01</leafValues></_>
        <_>
          <internalNodes>
            0 -1 98 3.4155935281887650e-04</internalNodes>
          <leafValues>
            -1.5652251243591309e-01 9.6152704954147339e-01</leafValues></_>
        <_>
          <internalNodes>
            0 -1 56 1.7355661839246750e-02</internalNodes>
          <leafValues>
            -3.7005358934402466e-01 4.8357534408569336e-01</leafValues></_>
        <_>
          <internalNodes>
            0 -1 49 -4.7205341979861259e-03</internalNodes>
          <leafValues>
            7.0033186674118042e-01 -2.7571219205856323e-01</leafValues></_>
        <_>
          <internalNodes>
            0 -1 65 -1.9771857187151909e-03</internalNodes>
          <leafValues>
            7.9953056573867798e-01 -2.1462868154048920e-01</leafValues></_></weakClassifiers></_>
    <!-- stage 2 -->
    <_>
      <maxWeakCount>12</maxWeakCount>
      <stageThreshold>-4.6151420474052429e-01</stageThreshold>
      <weakClassifiers>
        <_>
          <internalNodes>
            0 -1 15 -4.7407621145248413e-01</internalNodes>
          <leafValues>
            -3.7931033968925476e-01 7.9853481054306030e-01</leafValues></_>
        <_>
          <internalNodes>
            0 -1 19 -7.3001384735107422e-03</internalNodes>
          <leafValues>
            6.8758815526962280e-01 -1.7192900180816650e-01</leafValues></_>
        <_>
          <internalNodes>
            0 -1 70 1.0806860402226448e-02</internalNodes>
          <leafValues>
            -3.1966325640678406e-01 6.3876855373382568e-01</leafValues></_>
        <_>
          <internalNodes>
            0 -1 117 1.7032010946422815e-03</internalNodes>
          <leafValues>
            -3.1537535786628723e-01 6.0215228796005249e-01</leafValues></_>
        <_>
          <internalNodes>
            0 -1 99 1.0858823225134984e-04</internalNodes>
          <leafValues>
            -2.9355779290199280e-01 7.1278083324432373e-01</leafValues></_>
        <_>
          <internalNodes>
            0 -1 82 -2.2727129980921745e-03</internalNodes>
          <leafValues>
            6.5113073587417603e-01 -2.7821797132492065e-01</leafValues></_>
        <_>
          <internalNodes>
            0 -1 23 -3.5545419901609421e-02</internalNodes>
          <leafValues>
            6.7677360773086548e-01 -2.5548937916755676e-01</leafValues></_>
        <_>
          <internalNodes>
            0 -1 48 -1.7669654916971922e-03</internalNodes>
          <leafValues>
            6.7461955547332764e-01 -2.5892865657806396e-01</leafValues></_>
        <_>
          <internalNodes>
            0 -1 29 -3.0025374144315720e-04</internalNodes>
          <leafValues>
            5.3429728746414185e-01 -3.2739353179931641e-01</leafValues></_>
        <_>
          <internalNodes>
            0 -1 40 -4.3624541722238064e-03</internalNodes>
          <leafValues>
            9.0334784984588623e-01 -1.9140221178531647e-01</leafValues></_>
        <_>
          <internalNodes>
            0 -1 60 -1.4130253111943603e-04</internalNodes>
          <leafValues>
            7.2223246097564697e-01 -1.9247467815876007e-01</leafValues></_>
        <_>
          <internalNodes>
            0 -1 30 -5.5006649345159531e-03</internalNodes>
          <leafValues>
            7.6903879642486572e-01 -2.0018604397773743e-01</leafValues></_></weakClassifiers></_>
    <!-- stage 3 -->
    <_>
      <maxWeakCount>15</maxWeakCount>
      <stageThreshold>-4.0434247255325317e-01</stageThreshold>
      <weakClassifiers>
        <_>
          <internalNodes>
            0 -1 32 -3.3814441412687302e-02</internalNodes>
          <leafValues>
            -1. 7.7462291717529297e-01</leafValues></_>
        <_>
          <internalNodes>
            0 -1 76 -7.7742752619087696e-03</internalNodes>
          <leafValues>
            6.8146449327468872e-01 -1.7728589475154877e-01</leafValues></_>
        <_>
          <internalNodes>
            0 -1 63 -2.9532313346862793e-02</internalNodes>
          <leafValues>
            6.3159537315368652e-01 -2.8751739859580994e-01</leafValues></_>
        <_>
          <internalNodes>
            0 -1 103 3.7584159872494638e-04</internalNodes>
          <leafValues>
            -1.8283627927303314e-01 8.9224463701248169e-01</leafValues></_>
        <_>
          <internalNodes>
            0 -1 118 5.9738405980169773e-04</internalNodes>
          <leafValues>
            -1.5828312933444977e-01 9.5643293857574463e-01</leafValues></_>
        <_>
          <internalNodes>
            0 -1 12 -6.0911104083061218e-02</internalNodes>
          <leafValues>
            6.8966794013977051e-01 -2.2636812925338745e-01</leafValues></_>
        <_>
          <internalNodes>
            0 -1 81 3.6931958049535751e-02</internalNodes>
          <leafValues>
            -2.1260116994380951e-01 7.4776792526245117e-01</leafValues></_>
        <_>
          <internalNodes>
            0 -1 16 1.2889059144072235e-04</internalNodes>
          <leafValues>
            3.8238161802291870e-01 -4.7196152806282043e-01</leafValues></_>
        <_>
          <internalNodes>
            0 -1 88 -3.0832495540380478e-03</internalNodes>
          <leafValues>
            6.3725727796554565e-01 -2.9545360803604126e-01</leafValues></_>
        <_>
          <internalNodes>
            0 -1 109 -5.5164669174700975e-04</internalNodes>
          <leafValues>
            7.5796908140182495e-01 -2.0469206571578979e-01</leafValues></_>
        <_>
          <internalNodes>
            0 -1 8 1.1621414159890264e-04</internalNodes>
          <leafValues>
            3.9038631319999695e-01 -4.0055263042449951e-01</leafValues></_>
        <_>
          <internalNodes>
            0 -1 71 3.2536691287532449e-04</internalNodes>
          <leafValues>
            -1.9508028030395508e-01 7.7387368679046631e-01</leafValues></_>
        <_>
          <internalNodes>
            0 -1 54 -6.0065025463700294e-03</internalNodes>
          <leafValues>
            6.9470739364624023e-01 -1.8148458003997803e-01</leafValues></_>
        <_>
          <internalNodes>
            0 -1 45 -1.4025709824636579e-03</internalNodes>
          <leafValues>
            7.1152788400650024e-01 -2.4950854480266571e-01</leafValues></_>
        <_>
          <internalNodes>
            0 -1 126 1.7145515885204077e-03</internalNodes>
          <leafValues>
            4.1497057676315308e-01 -4.3908941745758057e-01</leafValues></_></weakClassifiers></_>
    <!-- stage 4 -->
    <_>
      <maxWeakCount>15</maxWeakCount>
      <stageThreshold>-4.6699610352516174e-01</stageThreshold>
      <weakClassifiers>
        <_>
          <internalNodes>
            0 -1 10 3.5399594902992249e-01</internalNodes>
          <leafValues>
            7.7147918939590454e-01 -1.</leafValues></_>
        <_>
          <internalNodes>
            0 -1 87 2.7038686675950885e-04</internalNodes>
          <leafValues>
            -2.4467337131500244e-01 5.8610928058624268e-01</leafValues></_>
        <_>
          <internalNodes>
            0 -1 46 -1.2190805748105049e-02</internalNodes>
          <leafValues>
            4.8745796084403992e-01 -4.5455613732337952e-01</leafValues></_>
        <_>
          <internalNodes>
            0 -1 66 -1.7281610053032637e-03</internalNodes>
          <leafValues>
            7.5954169034957886e-01 -2.5413781404495239e-01</leafValues></_>
        <_>
          <internalNodes>
            0 -1 91 -5.1033879572059959e-05</internalNodes>
          <leafValues>
            5.1250147819519043e-01 -3.5026273131370544e-01</leafValues></_>
        <_>
          <internalNodes>
            0 -1 6 -1.3091653818264604e-04</internalNodes>
          <leafValues>
            -4.7857320308685303e-01 4.0408620238304138e-01</leafValues></_>
        <_>
          <internalNodes>
            0 -1 100 2.7842907002195716e-04</internalNodes>
          <leafValues>
            -2.2948023676872253e-01 7.6784574985504150e-01</leafValues></_>
        <_>
          <internalNodes>
            0 -1 37 6.2666861340403557e-03</internalNodes>
          <leafValues>
            -3.7887391448020935e-01 5.2442246675491333e-01</leafValues></_>
        <_>
          <internalNodes>
            0 -1 38 -4.9123689532279968e-03</internalNodes>
          <leafValues>
            6.8208837509155273e-01 -3.3908590674400330e-01</leafValues></_>
        <_>
          <internalNodes>
            0 -1 39 -3.0210701515898108e-04</internalNodes>
          <leafValues>
            4.8517251014709473e-01 -3.6242854595184326e-01</leafValues></_>
        <_>
          <internalNodes>
            0 -1 5 5.9758778661489487e-04</internalNodes>
          <leafValues>
            3.5876995325088501e-01 -5.1492708921432495e-01</leafValues></_>
        <_>
          <internalNodes>
            0 -1 34 -1.1032864858862013e-04</internalNodes>
          <leafValues>
            6.0863488912582397e-01 -2.9976284503936768e-01</leafValues></_>
        <_>
          <internalNodes>
            0 -1 36 -2.4580885656177998e-03</internalNodes>
          <leafValues>
            6.3675260543823242e-01 -2.5552564859390259e-01</leafValues></_>
        <_>
          <internalNodes>
            0 -1 111 5.5098524317145348e-03</internalNodes>
          <leafValues>
            -2.2716502845287323e-01 7.2201347351074219e-01</leafValues></_>
        <_>
          <internalNodes>
            0 -1 73 8.0988183617591858e-03</internalNodes>
          <leafValues>
            -3.3934926986694336e-01 5.5582422018051147e-01</leafValues></_></weakClassifiers></_>
    <!-- stage 5 -->
    <_>
      <maxWeakCount>12</maxWeakCount>
      <stageThreshold>-5.9015035629272461e-01</stageThreshold>
      <weakClassifiers>
        <_>
          <internalNodes>
            0 -1 14 -2.8283610008656979e-03</internalNodes>
          <leafValues>
            -5.5555558204650879e-01 8.0291968584060669e-01</leafValues></_>
        <_>
          <internalNodes>
            0 -1 50 -3.2818913459777832e-02</internalNodes>
          <leafValues>
            8.1534463167190552e-01 -8.8350720703601837e-02</leafValues></_>
        <_>
          <internalNodes>
            0 -1 78 -3.4628782421350479e-02</internalNodes>
          <leafValues>
            7.2987973690032959e-01 -2.3306822776794434e-01</leafValues></_>
        <_>
          <internalNodes>
            0 -1 25 -3.4214222431182861e-01</internalNodes>
          <leafValues>
            8.6282092332839966e-01 -2.3741836845874786e-01</leafValues></_>
        <_>
          <internalNodes>
            0 -1 11 -7.3003284633159637e-03</internalNodes>
          <leafValues>
            5.5333256721496582e-01 -3.0885821580886841e-01</leafValues></_>
        <_>
          <internalNodes>
            0 -1 3 -1.8057074630632997e-03</internalNodes>
          <leafValues>
            -8.9682346582412720e-01 2.0183245837688446e-01</leafValues></_>
        <_>
          <internalNodes>
            0 -1 28 -3.9447288960218430e-02</internalNodes>
          <leafValues>
            8.1716954708099365e-01 -2.3773786425590515e-01</leafValues></_>
        <_>
          <internalNodes>
            0 -1 17 5.6350813247263432e-04</internalNodes>
          <leafValues>
            2.5069028139114380e-01 -6.7583650350570679e-01</leafValues></_>
        <_>
          <internalNodes>
            0 -1 106 3.0100975185632706e-02</internalNodes>
          <leafValues>
            -1.9779001176357269e-01 8.9392721652984619e-01</leafValues></_>
        <_>
          <internalNodes>
            0 -1 22 3.7503638304769993e-04</internalNodes>
          <leafValues>
            3.3306226134300232e-01 -5.1630705595016479e-01</leafValues></_>
        <_>
          <internalNodes>
            0 -1 74 -2.4218346923589706e-02</internalNodes>
          <leafValues>
            8.5237222909927368e-01 -2.0232540369033813e-01</leafValues></_>
        <_>
          <internalNodes>
            0 -1 55 1.8836015369743109e-03</internalNodes>
          <leafValues>
            -3.9790660142898560e-01 4.2554965615272522e-01</leafValues></_></weakClassifiers></_>
    <!-- stage 6 -->
    <_>
      <maxWeakCount>15</maxWeakCount>
      <stageThreshold>-4.4859430193901062e-01</stageThreshold>
      <weakClassifiers>
        <_>
          <internalNodes>
            0 -1 97 2.1685871761292219e-03</internalNodes>
          <leafValues>
            7.8175312280654907e-01 -7.5000000000000000e-01</leafValues></_>
        <_>
          <internalNodes>
            0 -1 7 -4.6043001115322113e-02</internalNodes>
          <leafValues>
            7.6824909448623657e-01 -8.9372597634792328e-02</leafValues></_>
        <_>
          <internalNodes>
            0 -1 0 -1.2432816438376904e-03</internalNodes>
          <leafValues>
            -6.6190654039382935e-01 2.6644232869148254e-01</leafValues></_>
        <_>
          <internalNodes>
            0 -1 69 -1.8575333524495363e-03</internalNodes>
          <leafValues>
            4.5886334776878357e-01 -3.1983792781829834e-01</leafValues></_>
        <_>
          <internalNodes>
            0 -1 108 1.2229589745402336e-02</internalNodes>
          <leafValues>
            1.6418549418449402e-01 -8.5686296224594116e-01</leafValues></_>
        <_>
          <internalNodes>
            0 -1 57 5.0516059854999185e-04</internalNodes>
          <leafValues>
            1.8295454978942871e-01 -7.2284328937530518e-01</leafValues></_>
        <_>
          <internalNodes>
            0 -1 89 9.7347737755626440e-04</internalNodes>
          <leafValues>
            -2.3746524751186371e-01 8.8380271196365356e-01</leafValues></_>
        <_>
          <internalNodes>
            0 -1 122 1.2276017805561423e-03</internalNodes>
          <leafValues>
            2.7945503592491150e-01 -6.2468081712722778e-01</leafValues></_>
        <_>
          <internalNodes>
            0 -1 26 3.2534110546112061e-01</internalNodes>
          <leafValues>
            -1.9262327253818512e-01 8.1682997941970825e-01</leafValues></_>
        <_>
          <internalNodes>
            0 -1 67 -7.4124056845903397e-03</internalNodes>
          <leafValues>
            5.0568783283233643e-01 -3.2154744863510132e-01</leafValues></_>
        <_>
          <internalNodes>
            0 -1 2 3.3436430385336280e-04</internalNodes>
          <leafValues>
            2.8149992227554321e-01 -5.3932738304138184e-01</leafValues></_>
        <_>
          <internalNodes>
            0 -1 53 -1.4071847544983029e-04</internalNodes>
          <leafValues>
            5.5308133363723755e-01 -2.7332791686058044e-01</leafValues></_>
        <_>
          <internalNodes>
            0 -1 79 -1.5876146033406258e-02</internalNodes>
          <leafValues>
            8.7664771080017090e-01 -1.4426389336585999e-01</leafValues></_>
        <_>
          <internalNodes>
            0 -1 102 -1.0463455691933632e-03</internalNodes>
          <leafValues>
            8.8478899002075195e-01 -1.1257069557905197e-01</leafValues></_>
        <_>
          <internalNodes>
            0 -1 51 1.5439968556165695e-02</internalNodes>
          <leafValues>
            2.0889122784137726e-01 -8.7623041868209839e-01</leafValues></_></weakClassifiers></_>
    <!-- stage 7 -->
    <_>
      <maxWeakCount>12</maxWeakCount>
      <stageThreshold>-7.8664712607860565e-02</stageThreshold>
      <weakClassifiers>
        <_>
          <internalNodes>
            0 -1 107 4.7806957736611366e-03</internalNodes>
          <leafValues>
            7.9080253839492798e-01 -6.5853661298751831e-01</leafValues></_>
        <_>
          <internalNodes>
            0 -1 98 1.2565140787046403e-04</internalNodes>
          <leafValues>
            -2.1925861015915871e-02 8.9315563440322876e-01</leafValues></_>
        <_>
          <internalNodes>
            0 -1 4 -2.8630984015762806e-03</internalNodes>
          <leafValues>
            -6.1934775114059448e-01 3.5335680842399597e-01</leafValues></_>
        <_>
          <internalNodes>
            0 -1 96 9.6382194897159934e-05</internalNodes>
          <leafValues>
            -2.5122031569480896e-01 7.3914092779159546e-01</leafValues></_>
        <_>
          <internalNodes>
            0 -1 90 9.9630269687622786e-05</internalNodes>
          <leafValues>
            -2.5466039776802063e-01 7.0351982116699219e-01</leafValues></_>
        <_>
          <internalNodes>
            0 -1 105 -2.2405365016311407e-03</internalNodes>
          <leafValues>
            -5.8767879009246826e-01 3.1263035535812378e-01</leafValues></_>
        <_>
          <internalNodes>
            0 -1 31 -6.5408227965235710e-04</internalNodes>
          <leafValues>
            8.3610212802886963e-01 -2.2119180858135223e-01</leafValues></_>
        <_>
          <internalNodes>
            0 -1 77 8.4689076174981892e-05</internalNodes>
          <leafValues>
            -1.5537452697753906e-01 8.9204370975494385e-01</leafValues></_>
        <_>
          <internalNodes>
            0 -1 84 1.4661813620477915e-03</internalNodes>
          <leafValues>
            -1.7443975806236267e-01 8.0891209840774536e-01</leafValues></_>
        <_>
          <internalNodes>
            0 -1 128 4.0575538878329098e-04</internalNodes>
          <leafValues>
            3.2551407814025879e-01 -5.9700030088424683e-01</leafValues></_>
        <_>
          <internalNodes>
            0 -1 33 -9.8514289129525423e-04</internalNodes>
          <leafValues>
            7.7797877788543701e-01 -2.4640490114688873e-01</leafValues></_>
        <_>
          <internalNodes>
            0 -1 110 4.8039117245934904e-04</internalNodes>
          <leafValues>
            4.3695360422134399e-01 -4.5463308691978455e-01</leafValues></_></weakClassifiers></_>
    <!-- stage 8 -->
    <_>
      <maxWeakCount>16</maxWeakCount>
      <stageThreshold>-3.8415789604187012e-01</stageThreshold>
      <weakClassifiers>
        <_>
          <internalNodes>
            0 -1 113 -5.7979680597782135e-02</internalNodes>
          <leafValues>
            -7.2413790225982666e-01 7.7698481082916260e-01</leafValues></_>
        <_>
          <internalNodes>
            0 -1 98 3.0153786065056920e-04</internalNodes>
          <leafValues>
            8.4001673385500908e-03 8.8658928871154785e-01</leafValues></_>
        <_>
          <internalNodes>
            0 -1 112 -6.4025120809674263e-04</internalNodes>
          <leafValues>
            6.2090516090393066e-01 -1.8610177934169769e-01</leafValues></_>
        <_>
          <internalNodes>
            0 -1 115 1.1178159620612860e-03</internalNodes>
          <leafValues>
            -1.9881232082843781e-01 7.4118387699127197e-01</leafValues></_>
        <_>
          <internalNodes>
            0 -1 114 1.9348302157595754e-04</internalNodes>
          <leafValues>
            -1.9642524421215057e-01 7.3292714357376099e-01</leafValues></_>
        <_>
          <internalNodes>
            0 -1 121 -5.0639193505048752e-03</internalNodes>
          <leafValues>
            7.0002609491348267e-01 -1.8534000217914581e-01</leafValues></_>
        <_>
          <internalNodes>
            0 -1 41 -2.6807123795151711e-03</internalNodes>
          <leafValues>
            5.2462816238403320e-01 -2.6394581794738770e-01</leafValues></_>
        <_>
          <internalNodes>
            0 -1 94 -2.6724633062258363e-04</internalNodes>
          <leafValues>
            3.1049308180809021e-01 -4.6698078513145447e-01</leafValues></_>
        <_>
          <internalNodes>
            0 -1 21 5.3970048611517996e-05</internalNodes>
          <leafValues>
            3.0848598480224609e-01 -4.8491501808166504e-01</leafValues></_>
        <_>
          <internalNodes>
            0 -1 92 1.0167599975829944e-04</internalNodes>
          <leafValues>
            -2.0519664883613586e-01 8.4604096412658691e-01</leafValues></_>
        <_>
          <internalNodes>
            0 -1 59 -6.5413489937782288e-04</internalNodes>
          <leafValues>
            7.2511351108551025e-01 -1.9485071301460266e-01</leafValues></_>
        <_>
          <internalNodes>
            0 -1 119 -3.7635545595549047e-04</internalNodes>
          <leafValues>
            9.3256986141204834e-01 -1.5289686620235443e-01</leafValues></_>
        <_>
          <internalNodes>
            0 -1 9 -5.3628762543667108e-05</internalNodes>
          <leafValues>
            -3.9911606907844543e-01 3.7211892008781433e-01</leafValues></_>
        <_>
          <internalNodes>
            0 -1 83 3.5115558421239257e-04</internalNodes>
          <leafValues>
            -2.9723784327507019e-01 5.7595515251159668e-01</leafValues></_>
        <_>
          <internalNodes>
            0 -1 42 4.7920178622007370e-04</internalNodes>
          <leafValues>
            -1.4582566916942596e-01 9.4940274953842163e-01</leafValues></_>
        <_>
          <internalNodes>
            0 -1 123 -4.5153237879276276e-03</internalNodes>
          <leafValues>
            8.6059921979904175e-01 -1.3400797545909882e-01</leafValues></_></weakClassifiers></_>
    <!-- stage 9 -->
    <_>
      <maxWeakCount>13</maxWeakCount>
      <stageThreshold>-4.5726904273033142e-01</stageThreshold>
      <weakClassifiers>
        <_>
          <internalNodes>
            0 -1 43 7.1599036455154419e-02</internalNodes>
          <leafValues>
            7.9981637001037598e-01 -3.4426230192184448e-01</leafValues></_>
        <_>
          <internalNodes>
            0 -1 18 -3.5514622926712036e-02</internalNodes>
          <leafValues>
            8.5638368129730225e-01 -4.6551331877708435e-02</leafValues></_>
        <_>
          <internalNodes>
            0 -1 20 -9.4609744846820831e-03</internalNodes>
          <leafValues>
            8.1886756420135498e-01 -1.0657559335231781e-01</leafValues></_>
        <_>
          <internalNodes>
            0 -1 52 4.4154629111289978e-02</internalNodes>
          <leafValues>
            -2.7257677912712097e-01 5.1036602258682251e-01</leafValues></_>
        <_>
          <internalNodes>
            0 -1 127 2.2508190013468266e-03</internalNodes>
          <leafValues>
            2.1873705089092255e-01 -6.5506780147552490e-01</leafValues></_>
        <_>
          <internalNodes>
            0 -1 27 -3.0812914483249187e-03</internalNodes>
          <leafValues>
            -6.9776105880737305e-01 1.5688988566398621e-01</leafValues></_>
        <_>
          <internalNodes>
            0 -1 85 -5.9823337942361832e-03</internalNodes>
          <leafValues>
            5.3367793560028076e-01 -2.6145473122596741e-01</leafValues></_>
        <_>
          <internalNodes>
            0 -1 93 3.2327093183994293e-02</internalNodes>
          <leafValues>
            -1.6282202303409576e-01 8.3461928367614746e-01</leafValues></_>
        <_>
          <internalNodes>
            0 -1 125 -6.4264651155099273e-04</internalNodes>
          <leafValues>
            -6.8253034353256226e-01 2.3125919699668884e-01</leafValues></_>
        <_>
          <internalNodes>
            0 -1 44 3.1808286905288696e-02</internalNodes>
          <leafValues>
            -2.1747189760208130e-01 6.6728788614273071e-01</leafValues></_>
        <_>
          <internalNodes>
            0 -1 124 1.7487694276496768e-04</internalNodes>
          <leafValues>
            2.3106484115123749e-01 -6.4286243915557861e-01</leafValues></_>
        <_>
          <internalNodes>
            0 -1 129 7.0712657179683447e-04</internalNodes>
          <leafValues>
            2.4488243460655212e-01 -5.5049389600753784e-01</leafValues></_>
        <_>
          <internalNodes>
            0 -1 95 2.9424234526231885e-04</internalNodes>
          <leafValues>
            -3.9853918552398682e-01 3.5872322320938110e-01</leafValues></_></weakClassifiers></_></stages>
  <features>
    <_>
      <rects>
        <_>
          0 7 4 8 -1.</_>
        <_>
          2 7 2 8 2.</_></rects>
      <tilted>0</tilted></_>
    <_>
      <rects>
        <_>
          0 16 2 2 -1.</_>
        <_>
          0 16 1 1 2.</_>
        <_>
          1 17 1 1 2.</_></rects>
      <tilted>0</tilted></_>
    <_>
      <rects>
        <_>
          0 31 3 6 -1.</_>
        <_>
          0 33 3 2 3.</_></rects>
      <tilted>0</tilted></_>
    <_>
      <rects>
        <_>
          0 33 10 4 -1.</_>
        <_>
          0 33 5 2 2.</_>
        <_>
          5 35 5 2 2.</_></rects>
      <tilted>0</tilted></_>
    <_>
      <rects>
        <_>
          0 35 10 5 -1.</_>
        <_>
          5 35 5 5 2.</_></rects>
      <tilted>0</tilted></_>
    <_>
      <rects>
        <_>
          1 1 4 22 -1.</_>
        <_>
          1 1 2 11 2.</_>
        <_>
          3 12 2 11 2.</_></rects>
      <tilted>0</tilted></_>
    <_>
      <rects>
        <_>
          1 6 10 4 -1.</_>
        <_>
          1 6 5 2 2.</_>
        <_>
          6 8 5 2 2.</_></rects>
      <tilted>0</tilted></_>
    <_>
      <rects>
        <_>
          1 15 34 23 -1.</_>
        <_>
          18 15 17 23 2.</_></rects>
      <tilted>0</tilted></_>
    <_>
      <rects>
        <_>
          1 27 3 6 -1.</_>
        <_>
          1 29 3 2 3.</_></rects>
      <tilted>0</tilted></_>
    <_>
      <rects>
        <_>
          3 0 6 3 -1.</_>
        <_>
          5 1 2 1 9.</_></rects>
      <tilted>0</tilted></_>
    <_>
      <rects>
        <_>
          4 12 74 24 -1.</_>
        <_>
          41 12 37 24 2.</_></rects>
      <tilted>0</tilted></_>
    <_>
      <rects>
        <_>
          4 17 36 9 -1.</_>
        <_>
          13 17 18 9 2.</_></rects>
      <tilted>0</tilted></_>
    <_>
      <rects>
        <_>
          4 24 68 12 -1.</_>
        <_>
          21 24 34 12 2.</_></rects>
      <tilted>0</tilted></_>
    <_>
      <rects>
        <_>
          4 26 69 9 -1.</_>
        <_>
          27 26 23 9 3.</_></rects>
      <tilted>0</tilted></_>
    <_>
      <rects>
        <_>
          6 0 11 3 -1.</_>
        <_>
          5 1 11 1 3.</_></rects>
      <tilted>1</tilted></_>
    <_>
      <rects>
        <_>
          7 0 62 40 -1.</_>
        <_>
          7 20 62 20 2.</_></rects>
      <tilted>0</tilted></_>
    <_>
      <rects>
        <_>
          7 1 2 12 -1.</_>
        <_>
          8 1 1 12 2.</_></rects>
      <tilted>0</tilted></_>
    <_>
      <rects>
        <_>
          7 1 2 3 -1.</_>
        <_>
          6 2 2 1 3.</_></rects>
      <tilted>1</tilted></_>
    <_>
      <rects>
        <_>
          7 14 42 12 -1.</_>
        <_>
          21 14 14 12 3.</_></rects>
      <tilted>0</tilted></_>
    <_>
      <rects>
        <_>
          7 19 33 9 -1.</_>
        <_>
          18 19 11 9 3.</_></rects>
      <tilted>0</tilted></_>
    <_>
      <rects>
        <_>
          9 11 66 1 -1.</_>
        <_>
          31 11 22 1 3.</_></rects>
      <tilted>0</tilted></_>
    <_>
      <rects>
        <_>
          10 1 2 2 -1.</_>
        <_>
          10 1 1 2 2.</_></rects>
      <tilted>1</tilted></_>
    <_>
      <rects>
        <_>
          10 1 8 2 -1.</_>
        <_>
          14 1 4 2 2.</_></rects>
      <tilted>0</tilted></_>
    <_>
      <rects>
        <_>
          11 18 42 18 -1.</_>
        <_>
          11 18 21 9 2.</_>
        <_>
          32 27 21 9 2.</_></rects>
      <tilted>0</tilted></_>
    <_>
      <rects>
        <_>
          12 13 38 8 -1.</_>
        <_>
          12 13 19 4 2.</_>
        <_>
          31 17 19 4 2.</_></rects>
      <tilted>0</tilted></_>
    <_>
      <rects>
        <_>
          13 10 66 30 -1.</_>
        <_>
          35 20 22 10 9.</_></rects>
      <tilted>0</tilted></_>
    <_>
      <rects>
        <_>
          14 6 63 27 -1.</_>
        <_>
          35 15 21 9 9.</_></rects>
      <tilted>0</tilted></_>
    <_>
      <rects>
        <_>
          14 21 6 10 -1.</_>
        <_>
          16 21 2 10 3.</_></rects>
      <tilted>0</tilted></_>
    <_>
      <rects>
        <_>
          14 21 52 15 -1.</_>
        <_>
          14 26 52 5 3.</_></rects>
      <tilted>0</tilted></_>
    <_>
      <rects>
        <_>
          15 22 28 2 -1.</_>
        <_>
          15 23 28 1 2.</_></rects>
      <tilted>0</tilted></_>
    <_>
      <rects>
        <_>
          17 15 18 5 -1.</_>
        <_>
          23 15 6 5 3.</_></rects>
      <tilted>0</tilted></_>
    <_>
      <rects>
        <_>
          17 26 17 3 -1.</_>
        <_>
          17 27 17 1 3.</_></rects>
      <tilted>0</tilted></_>
    <_>
      <rects>
        <_>
          18 3 34 3 -1.</_>
        <_>
          18 3 17 3 2.</_></rects>
      <tilted>1</tilted></_>
    <_>
      <rects>
        <_>
          18 25 23 3 -1.</_>
        <_>
          18 26 23 1 3.</_></rects>
      <tilted>0</tilted></_>
    <_>
      <rects>
        <_>
          19 24 1 6 -1.</_>
        <_>
          19 27 1 3 2.</_></rects>
      <tilted>0</tilted></_>
    <_>
      <rects>
        <_>
          20 13 32 8 -1.</_>
        <_>
          20 13 16 4 2.</_>
        <_>
          36 17 16 4 2.</_></rects>
      <tilted>0</tilted></_>
    <_>
      <rects>
        <_>
          21 17 16 8 -1.</_>
        <_>
          21 17 8 4 2.</_>
        <_>
          29 21 8 4 2.</_></rects>
      <tilted>0</tilted></_>
    <_>
      <rects>
        <_>
          22 9 24 14 -1.</_>
        <_>
          22 9 12 7 2.</_>
        <_>
          34 16 12 7 2.</_></rects>
      <tilted>0</tilted></_>
    <_>
      <rects>
        <_>
          22 17 13 9 -1.</_>
        <_>
          19 20 13 3 3.</_></rects>
      <tilted>1</tilted></_>
    <_>
      <rects>
        <_>
          22 19 8 4 -1.</_>
        <_>
          22 21 8 2 2.</_></rects>
      <tilted>0</tilted></_>
    <_>
      <rects>
        <_>
          22 23 12 14 -1.</_>
        <_>
          25 23 6 14 2.</_></rects>
      <tilted>0</tilted></_>
    <_>
      <rects>
        <_>
          23 12 3 24 -1.</_>
        <_>
          23 18 3 12 2.</_></rects>
      <tilted>0</tilted></_>
    <_>
      <rects>
        <_>
          23 14 2 8 -1.</_>
        <_>
          23 14 1 4 2.</_>
        <_>
          24 18 1 4 2.</_></rects>
      <tilted>0</tilted></_>
    <_>
      <rects>
        <_>
          24 0 31 40 -1.</_>
        <_>
          24 20 31 20 2.</_></rects>
      <tilted>0</tilted></_>
    <_>
      <rects>
        <_>
          24 4 24 22 -1.</_>
        <_>
          36 4 12 22 2.</_></rects>
      <tilted>0</tilted></_>
    <_>
      <rects>
        <_>
          24 6 4 12 -1.</_>
        <_>
          24 10 4 4 3.</_></rects>
      <tilted>0</tilted></_>
    <_>
      <rects>
        <_>
          24 20 28 20 -1.</_>
        <_>
          24 25 28 10 2.</_></rects>
      <tilted>0</tilted></_>
    <_>
      <rects>
        <_>
          24 21 24 18 -1.</_>
        <_>
          24 27 24 6 3.</_></rects>
      <tilted>0</tilted></_>
    <_>
      <rects>
        <_>
          24 29 15 3 -1.</_>
        <_>
          29 30 5 1 9.</_></rects>
      <tilted>0</tilted></_>
    <_>
      <rects>
        <_>
          25 8 17 6 -1.</_>
        <_>
          25 11 17 3 2.</_></rects>
      <tilted>0</tilted></_>
    <_>
      <rects>
        <_>
          26 0 33 16 -1.</_>
        <_>
          26 8 33 8 2.</_></rects>
      <tilted>0</tilted></_>
    <_>
      <rects>
        <_>
          26 1 9 36 -1.</_>
        <_>
          29 1 3 36 3.</_></rects>
      <tilted>0</tilted></_>
    <_>
      <rects>
        <_>
          26 16 52 20 -1.</_>
        <_>
          26 16 26 10 2.</_>
        <_>
          52 26 26 10 2.</_></rects>
      <tilted>0</tilted></_>
    <_>
      <rects>
        <_>
          26 18 5 2 -1.</_>
        <_>
          26 19 5 1 2.</_></rects>
      <tilted>0</tilted></_>
    <_>
      <rects>
        <_>
          27 2 14 14 -1.</_>
        <_>
          27 2 7 7 2.</_>
        <_>
          34 9 7 7 2.</_></rects>
      <tilted>0</tilted></_>
    <_>
      <rects>
        <_>
          27 14 10 10 -1.</_>
        <_>
          27 14 10 5 2.</_></rects>
      <tilted>1</tilted></_>
    <_>
      <rects>
        <_>
          27 16 46 18 -1.</_>
        <_>
          27 16 23 9 2.</_>
        <_>
          50 25 23 9 2.</_></rects>
      <tilted>0</tilted></_>
    <_>
      <rects>
        <_>
          27 18 24 12 -1.</_>
        <_>
          27 24 24 6 2.</_></rects>
      <tilted>0</tilted></_>
    <_>
      <rects>
        <_>
          28 9 13 9 -1.</_>
        <_>
          28 12 13 3 3.</_></rects>
      <tilted>0</tilted></_>
    <_>
      <rects>
        <_>
          28 14 2 6 -1.</_>
        <_>
          28 17 2 3 2.</_></rects>
      <tilted>0</tilted></_>
    <_>
      <rects>
        <_>
          28 15 2 4 -1.</_>
        <_>
          29 15 1 4 2.</_></rects>
      <tilted>0</tilted></_>
    <_>
      <rects>
        <_>
          29 11 18 2 -1.</_>
        <_>
          29 11 9 1 2.</_>
        <_>
          38 12 9 1 2.</_></rects>
      <tilted>0</tilted></_>
    <_>
      <rects>
        <_>
          29 15 28 6 -1.</_>
        <_>
          36 15 14 6 2.</_></rects>
      <tilted>0</tilted></_>
    <_>
      <rects>
        <_>
          30 16 17 24 -1.</_>
        <_>
          30 24 17 8 3.</_></rects>
      <tilted>0</tilted></_>
    <_>
      <rects>
        <_>
          30 18 21 12 -1.</_>
        <_>
          30 24 21 6 2.</_></rects>
      <tilted>0</tilted></_>
    <_>
      <rects>
        <_>
          31 0 2 15 -1.</_>
        <_>
          31 5 2 5 3.</_></rects>
      <tilted>0</tilted></_>
    <_>
      <rects>
        <_>
          31 19 10 4 -1.</_>
        <_>
          31 19 5 2 2.</_>
        <_>
          36 21 5 2 2.</_></rects>
      <tilted>0</tilted></_>
    <_>
      <rects>
        <_>
          32 4 13 12 -1.</_>
        <_>
          32 10 13 6 2.</_></rects>
      <tilted>0</tilted></_>
    <_>
      <rects>
        <_>
          32 12 3 6 -1.</_>
        <_>
          32 15 3 3 2.</_></rects>
      <tilted>0</tilted></_>
    <_>
      <rects>
        <_>
          32 14 30 4 -1.</_>
        <_>
          32 14 15 2 2.</_>
        <_>
          47 16 15 2 2.</_></rects>
      <tilted>0</tilted></_>
    <_>
      <rects>
        <_>
          32 18 28 18 -1.</_>
        <_>
          32 18 14 9 2.</_>
        <_>
          46 27 14 9 2.</_></rects>
      <tilted>0</tilted></_>
    <_>
      <rects>
        <_>
          32 29 6 2 -1.</_>
        <_>
          32 29 3 1 2.</_>
        <_>
          35 30 3 1 2.</_></rects>
      <tilted>0</tilted></_>
    <_>
      <rects>
        <_>
          33 11 15 18 -1.</_>
        <_>
          38 17 5 6 9.</_></rects>
      <tilted>0</tilted></_>
    <_>
      <rects>
        <_>
          33 21 44 10 -1.</_>
        <_>
          33 21 22 5 2.</_>
        <_>
          55 26 22 5 2.</_></rects>
      <tilted>0</tilted></_>
    <_>
      <rects>
        <_>
          34 1 16 15 -1.</_>
        <_>
          38 5 8 15 2.</_></rects>
      <tilted>1</tilted></_>
    <_>
      <rects>
        <_>
          34 9 20 12 -1.</_>
        <_>
          34 9 10 6 2.</_>
        <_>
          44 15 10 6 2.</_></rects>
      <tilted>0</tilted></_>
    <_>
      <rects>
        <_>
          35 5 12 15 -1.</_>
        <_>
          35 10 12 5 3.</_></rects>
      <tilted>0</tilted></_>
    <_>
      <rects>
        <_>
          35 9 1 3 -1.</_>
        <_>
          35 10 1 1 3.</_></rects>
      <tilted>0</tilted></_>
    <_>
      <rects>
        <_>
          35 16 14 22 -1.</_>
        <_>
          35 27 14 11 2.</_></rects>
      <tilted>0</tilted></_>
    <_>
      <rects>
        <_>
          36 0 22 16 -1.</_>
        <_>
          36 0 11 8 2.</_>
        <_>
          47 8 11 8 2.</_></rects>
      <tilted>0</tilted></_>
    <_>
      <rects>
        <_>
          36 13 4 6 -1.</_>
        <_>
          36 16 4 3 2.</_></rects>
      <tilted>0</tilted></_>
    <_>
      <rects>
        <_>
          37 4 24 11 -1.</_>
        <_>
          43 10 12 11 2.</_></rects>
      <tilted>1</tilted></_>
    <_>
      <rects>
        <_>
          37 10 6 6 -1.</_>
        <_>
          39 12 2 6 3.</_></rects>
      <tilted>1</tilted></_>
    <_>
      <rects>
        <_>
          37 11 4 6 -1.</_>
        <_>
          39 11 2 6 2.</_></rects>
      <tilted>0</tilted></_>
    <_>
      <rects>
        <_>
          37 25 30 3 -1.</_>
        <_>
          37 26 30 1 3.</_></rects>
      <tilted>0</tilted></_>
    <_>
      <rects>
        <_>
          37 27 13 12 -1.</_>
        <_>
          37 31 13 4 3.</_></rects>
      <tilted>0</tilted></_>
    <_>
      <rects>
        <_>
          38 7 3 12 -1.</_>
        <_>
          38 10 3 6 2.</_></rects>
      <tilted>0</tilted></_>
    <_>
      <rects>
        <_>
          38 14 4 4 -1.</_>
        <_>
          38 16 4 2 2.</_></rects>
      <tilted>0</tilted></_>
    <_>
      <rects>
        <_>
          38 28 12 6 -1.</_>
        <_>
          42 30 4 2 9.</_></rects>
      <tilted>0</tilted></_>
    <_>
      <rects>
        <_>
          38 29 14 2 -1.</_>
        <_>
          38 29 7 1 2.</_>
        <_>
          45 30 7 1 2.</_></rects>
      <tilted>0</tilted></_>
    <_>
      <rects>
        <_>
          39 15 1 3 -1.</_>
        <_>
          39 16 1 1 3.</_></rects>
      <tilted>0</tilted></_>
    <_>
      <rects>
        <_>
          39 17 1 8 -1.</_>
        <_>
          39 19 1 4 2.</_></rects>
      <tilted>0</tilted></_>
    <_>
      <rects>
        <_>
          39 18 2 2 -1.</_>
        <_>
          39 18 1 1 2.</_>
        <_>
          40 19 1 1 2.</_></rects>
      <tilted>0</tilted></_>
    <_>
      <rects>
        <_>
          40 0 12 16 -1.</_>
        <_>
          40 0 6 16 2.</_></rects>
      <tilted>1</tilted></_>
    <_>
      <rects>
        <_>
          40 12 4 3 -1.</_>
        <_>
          40 12 2 3 2.</_></rects>
      <tilted>1</tilted></_>
    <_>
      <rects>
        <_>
          40 14 2 4 -1.</_>
        <_>
          40 16 2 2 2.</_></rects>
      <tilted>0</tilted></_>
    <_>
      <rects>
        <_>
          40 16 1 3 -1.</_>
        <_>
          40 17 1 1 3.</_></rects>
      <tilted>0</tilted></_>
    <_>
      <rects>
        <_>
          40 16 4 6 -1.</_>
        <_>
          42 16 2 6 2.</_></rects>
      <tilted>0</tilted></_>
    <_>
      <rects>
        <_>
          40 18 1 3 -1.</_>
        <_>
          40 19 1 1 3.</_></rects>
      <tilted>0</tilted></_>
    <_>
      <rects>
        <_>
          40 19 2 4 -1.</_>
        <_>
          40 19 1 2 2.</_>
        <_>
          41 21 1 2 2.</_></rects>
      <tilted>0</tilted></_>
    <_>
      <rects>
        <_>
          40 21 10 2 -1.</_>
        <_>
          40 21 5 1 2.</_>
        <_>
          45 22 5 1 2.</_></rects>
      <tilted>0</tilted></_>
    <_>
      <rects>
        <_>
          40 24 19 15 -1.</_>
        <_>
          40 29 19 5 3.</_></rects>
      <tilted>0</tilted></_>
    <_>
      <rects>
        <_>
          41 18 3 3 -1.</_>
        <_>
          42 19 1 1 9.</_></rects>
      <tilted>0</tilted></_>
    <_>
      <rects>
        <_>
          41 19 2 1 -1.</_>
        <_>
          41 19 1 1 2.</_></rects>
      <tilted>1</tilted></_>
    <_>
      <rects>
        <_>
          41 19 5 2 -1.</_>
        <_>
          41 19 5 1 2.</_></rects>
      <tilted>1</tilted></_>
    <_>
      <rects>
        <_>
          42 14 12 7 -1.</_>
        <_>
          45 14 6 7 2.</_></rects>
      <tilted>0</tilted></_>
    <_>
      <rects>
        <_>
          42 16 9 12 -1.</_>
        <_>
          42 16 9 6 2.</_></rects>
      <tilted>1</tilted></_>
    <_>
      <rects>
        <_>
          42 18 8 7 -1.</_>
        <_>
          46 18 4 7 2.</_></rects>
      <tilted>0</tilted></_>
    <_>
      <rects>
        <_>
          43 7 8 28 -1.</_>
        <_>
          47 7 4 28 2.</_></rects>
      <tilted>0</tilted></_>
    <_>
      <rects>
        <_>
          43 8 14 2 -1.</_>
        <_>
          43 8 7 1 2.</_>
        <_>
          50 9 7 1 2.</_></rects>
      <tilted>0</tilted></_>
    <_>
      <rects>
        <_>
          44 18 3 9 -1.</_>
        <_>
          41 21 3 3 3.</_></rects>
      <tilted>1</tilted></_>
    <_>
      <rects>
        <_>
          45 0 21 4 -1.</_>
        <_>
          45 0 21 2 2.</_></rects>
      <tilted>1</tilted></_>
    <_>
      <rects>
        <_>
          45 5 3 10 -1.</_>
        <_>
          46 6 1 10 3.</_></rects>
      <tilted>1</tilted></_>
    <_>
      <rects>
        <_>
          45 18 35 10 -1.</_>
        <_>
          45 23 35 5 2.</_></rects>
      <tilted>0</tilted></_>
    <_>
      <rects>
        <_>
          46 9 6 1 -1.</_>
        <_>
          49 9 3 1 2.</_></rects>
      <tilted>0</tilted></_>
    <_>
      <rects>
        <_>
          47 23 6 6 -1.</_>
        <_>
          47 23 3 3 2.</_>
        <_>
          50 26 3 3 2.</_></rects>
      <tilted>0</tilted></_>
    <_>
      <rects>
        <_>
          50 10 28 12 -1.</_>
        <_>
          64 10 14 12 2.</_></rects>
      <tilted>0</tilted></_>
    <_>
      <rects>
        <_>
          51 21 22 4 -1.</_>
        <_>
          62 21 11 4 2.</_></rects>
      <tilted>0</tilted></_>
    <_>
      <rects>
        <_>
          52 26 10 2 -1.</_>
        <_>
          52 26 5 1 2.</_>
        <_>
          57 27 5 1 2.</_></rects>
      <tilted>0</tilted></_>
    <_>
      <rects>
        <_>
          56 12 2 10 -1.</_>
        <_>
          56 12 1 5 2.</_>
        <_>
          57 17 1 5 2.</_></rects>
      <tilted>0</tilted></_>
    <_>
      <rects>
        <_>
          57 3 8 28 -1.</_>
        <_>
          57 3 8 14 2.</_></rects>
      <tilted>1</tilted></_>
    <_>
      <rects>
        <_>
          61 15 8 11 -1.</_>
        <_>
          63 17 4 11 2.</_></rects>
      <tilted>1</tilted></_>
    <_>
      <rects>
        <_>
          63 0 5 6 -1.</_>
        <_>
          63 3 5 3 2.</_></rects>
      <tilted>0</tilted></_>
    <_>
      <rects>
        <_>
          67 12 8 8 -1.</_>
        <_>
          65 14 8 4 2.</_></rects>
      <tilted>1</tilted></_>
    <_>
      <rects>
        <_>
          68 2 3 2 -1.</_>
        <_>
          68 3 3 1 2.</_></rects>
      <tilted>0</tilted></_>
    <_>
      <rects>
        <_>
          70 2 2 6 -1.</_>
        <_>
          70 4 2 2 3.</_></rects>
      <tilted>0</tilted></_>
    <_>
      <rects>
        <_>
          71 15 3 24 -1.</_>
        <_>
          72 23 1 8 9.</_></rects>
      <tilted>0</tilted></_>
    <_>
      <rects>
        <_>
          71 27 8 10 -1.</_>
        <_>
          71 27 4 5 2.</_>
        <_>
          75 32 4 5 2.</_></rects>
      <tilted>0</tilted></_>
    <_>
      <rects>
        <_>
          75 0 2 6 -1.</_>
        <_>
          75 3 2 3 2.</_></rects>
      <tilted>0</tilted></_>
    <_>
      <rects>
        <_>
          78 20 1 18 -1.</_>
        <_>
          78 29 1 9 2.</_></rects>
      <tilted>0</tilted></_></features></cascade>
</opencv_storage>
